<?xml version="1.0" encoding="UTF-8"?>
<BIF VERSION="0.3"  xmlns="http://www.cs.ubc.ca/labs/lci/fopi/ve/XMLBIFv0_3"
	xmlns:xsi="http://www.w3.org/2001/XMLSchema-instance"
	xsi:schemaLocation="http://www.cs.ubc.ca/labs/lci/fopi/ve/XMLBIFv0_3 http://www.cs.ubc.ca/labs/lci/fopi/ve/XMLBIFv0_3/XMLBIFv0_3.xsd">
<NETWORK>
<NAME>Electrical Diagnosis Problem</NAME>
<PROPERTY>short = Electrical Diagnosis Example of Poole and Mackworth, Artificial Intelligence.</PROPERTY>
<PROPERTY>detailed = This example models the problem of diagnosing the electrical system of a house. This is Figure 6.2 and Example 6.11 of Poole and Mackworth, Artificial Intelligence: foundations of computational agents. Copyright Poole and Mackworth, 2010. This may be used under a Creative Commons Attribution-Noncommercial-Share Alike 2.5 Canada License http://creativecommons.org/licenses/by-nc-sa/2.5/ca/</PROPERTY>

<VARIABLE TYPE="nature">
	<NAME>outside_power</NAME>
	<OUTCOME>on</OUTCOME>
	<OUTCOME>off</OUTCOME>
	<PROPERTY>position = (7573.50341796875, 5046.44775390625)</PROPERTY>
</VARIABLE>

<VARIABLE TYPE="nature">
	<NAME>cb1_st</NAME>
	<OUTCOME>on</OUTCOME>
	<OUTCOME>off</OUTCOME>
	<PROPERTY>position = (7398.587890625, 5091.3583984375)</PROPERTY>
</VARIABLE>

<VARIABLE TYPE="nature">
	<NAME>w3</NAME>
	<OUTCOME>live</OUTCOME>
	<OUTCOME>dead</OUTCOME>
	<PROPERTY>position = (7483.68212890625, 5124.4501953125)</PROPERTY>
</VARIABLE>

<VARIABLE TYPE="nature">
	<NAME>cb2_st</NAME>
	<OUTCOME>on</OUTCOME>
	<OUTCOME>off</OUTCOME>
	<PROPERTY>position = (7673.9609375, 5094.904296875)</PROPERTY>
</VARIABLE>

<VARIABLE TYPE="nature">
	<NAME>w6</NAME>
	<OUTCOME>live</OUTCOME>
	<OUTCOME>dead</OUTCOME>
	<PROPERTY>position = (7600.68603515625, 5150.451171875)</PROPERTY>
</VARIABLE>

<VARIABLE TYPE="nature">
	<NAME>p2</NAME>
	<OUTCOME>T</OUTCOME>
	<OUTCOME>F</OUTCOME>
	<PROPERTY>position = (7651.50537109375, 5248.5458984375)</PROPERTY>
</VARIABLE>

<VARIABLE TYPE="nature">
	<NAME>p1</NAME>
	<OUTCOME>T</OUTCOME>
	<OUTCOME>F</OUTCOME>
	<PROPERTY>position = (7552.2294921875, 5245.00048828125)</PROPERTY>
</VARIABLE>

<VARIABLE TYPE="nature">
	<NAME>s1_st</NAME>
	<OUTCOME>ok</OUTCOME>
	<OUTCOME>upside_down</OUTCOME>
	<OUTCOME>short</OUTCOME>
	<OUTCOME>intermittent</OUTCOME>
	<OUTCOME>broken</OUTCOME>
	<PROPERTY>position = (7415.13330078125, 5176.4521484375)</PROPERTY>
</VARIABLE>

<VARIABLE TYPE="nature">
	<NAME>s1_pos</NAME>
	<OUTCOME>up</OUTCOME>
	<OUTCOME>down</OUTCOME>
	<PROPERTY>position = (7335.94873046875, 5178.81591796875)</PROPERTY>
</VARIABLE>

<VARIABLE TYPE="nature">
	<NAME>w1</NAME>
	<OUTCOME>live</OUTCOME>
	<OUTCOME>dead</OUTCOME>
	<PROPERTY>position = (7372.58740234375, 5255.63671875)</PROPERTY>
</VARIABLE>

<VARIABLE TYPE="nature">
	<NAME>w2</NAME>
	<OUTCOME>live</OUTCOME>
	<OUTCOME>dead</OUTCOME>
	<PROPERTY>position = (7455.31640625, 5253.27294921875)</PROPERTY>
</VARIABLE>

<VARIABLE TYPE="nature">
	<NAME>w0</NAME>
	<OUTCOME>live</OUTCOME>
	<OUTCOME>dead</OUTCOME>
	<PROPERTY>position = (7416.31591796875, 5339.548828125)</PROPERTY>
</VARIABLE>

<VARIABLE TYPE="nature">
	<NAME>s2_st</NAME>
	<OUTCOME>ok</OUTCOME>
	<OUTCOME>upside_down</OUTCOME>
	<OUTCOME>short</OUTCOME>
	<OUTCOME>intermittent</OUTCOME>
	<OUTCOME>broken</OUTCOME>
	<PROPERTY>position = (7331.22119140625, 5301.7294921875)</PROPERTY>
</VARIABLE>

<VARIABLE TYPE="nature">
	<NAME>s2_pos</NAME>
	<OUTCOME>up</OUTCOME>
	<OUTCOME>down</OUTCOME>
	<PROPERTY>position = (7330.03955078125, 5365.5498046875)</PROPERTY>
</VARIABLE>

<VARIABLE TYPE="nature">
	<NAME>l1_lit</NAME>
	<OUTCOME>T</OUTCOME>
	<OUTCOME>F</OUTCOME>
	<PROPERTY>position = (7430.498046875, 5443.552734375)</PROPERTY>
</VARIABLE>

<VARIABLE TYPE="nature">
	<NAME>w4</NAME>
	<OUTCOME>live</OUTCOME>
	<OUTCOME>dead</OUTCOME>
	<PROPERTY>position = (7539.2294921875, 5332.4580078125)</PROPERTY>
</VARIABLE>

<VARIABLE TYPE="nature">
	<NAME>s3_pos</NAME>
	<OUTCOME>up</OUTCOME>
	<OUTCOME>down</OUTCOME>
	<PROPERTY>position = (7581.77587890625, 5289.9111328125)</PROPERTY>
</VARIABLE>

<VARIABLE TYPE="nature">
	<NAME>s3_st</NAME>
	<OUTCOME>ok</OUTCOME>
	<OUTCOME>upside_down</OUTCOME>
	<OUTCOME>short</OUTCOME>
	<OUTCOME>intermittent</OUTCOME>
	<OUTCOME>broken</OUTCOME>
	<PROPERTY>position = (7657.41552734375, 5334.82177734375)</PROPERTY>
</VARIABLE>

<VARIABLE TYPE="nature">
	<NAME>l2_lit</NAME>
	<OUTCOME>T</OUTCOME>
	<OUTCOME>F</OUTCOME>
	<PROPERTY>position = (7575.86669921875, 5431.734375)</PROPERTY>
</VARIABLE>

<VARIABLE TYPE="nature">
	<NAME>l2_st</NAME>
	<OUTCOME>ok</OUTCOME>
	<OUTCOME>intermittent</OUTCOME>
	<OUTCOME>broken</OUTCOME>
	<PROPERTY>position = (7651.50537109375, 5396.2783203125)</PROPERTY>
</VARIABLE>

<VARIABLE TYPE="nature">
	<NAME>l1_st</NAME>
	<OUTCOME>ok</OUTCOME>
	<OUTCOME>intermittent</OUTCOME>
	<OUTCOME>broken</OUTCOME>
	<PROPERTY>position = (7490.7724609375, 5397.4599609375)</PROPERTY>
</VARIABLE>

<DEFINITION>
	<FOR>outside_power</FOR>
	<TABLE>0.98 0.02</TABLE>
</DEFINITION>

<DEFINITION>
	<FOR>cb1_st</FOR>
	<TABLE>0.999 0.001</TABLE>
</DEFINITION>

<DEFINITION>
	<FOR>w3</FOR>
	<GIVEN>outside_power</GIVEN>
	<GIVEN>cb1_st</GIVEN>
	<TABLE>1.0 0.0 0.0 1.0 0.0 1.0 0.0 1.0</TABLE>
</DEFINITION>

<DEFINITION>
	<FOR>cb2_st</FOR>
	<TABLE>0.999 0.001</TABLE>
</DEFINITION>

<DEFINITION>
	<FOR>w6</FOR>
	<GIVEN>outside_power</GIVEN>
	<GIVEN>cb2_st</GIVEN>
	<TABLE>1.0 0.0 0.0 1.0 0.0 1.0 0.0 1.0</TABLE>
</DEFINITION>

<DEFINITION>
	<FOR>p2</FOR>
	<GIVEN>w6</GIVEN>
	<TABLE>1.0 0.0 0.0 1.0</TABLE>
</DEFINITION>

<DEFINITION>
	<FOR>p1</FOR>
	<GIVEN>w3</GIVEN>
	<TABLE>1.0 0.0 0.0 1.0</TABLE>
</DEFINITION>

<DEFINITION>
	<FOR>s1_st</FOR>
	<TABLE>0.9 0.01 0.04 0.03 0.02</TABLE>
</DEFINITION>

<DEFINITION>
	<FOR>s1_pos</FOR>
	<TABLE>0.5 0.5</TABLE>
</DEFINITION>

<DEFINITION>
	<FOR>w1</FOR>
	<GIVEN>w3</GIVEN>
	<GIVEN>s1_st</GIVEN>
	<GIVEN>s1_pos</GIVEN>
	<TABLE>1.0 0.0 0.0 1.0 0.0 1.0 1.0 0.0 0.6 0.4 0.4 0.6 0.4 0.6 0.01 0.99 0.0 1.0 0.0 1.0 0.0 1.0 0.0 1.0 0.0 1.0 0.0 1.0 0.0 1.0 0.0 1.0 0.0 1.0 0.0 1.0 0.0 1.0 0.0 1.0</TABLE>
</DEFINITION>

<DEFINITION>
	<FOR>w2</FOR>
	<GIVEN>w3</GIVEN>
	<GIVEN>s1_st</GIVEN>
	<GIVEN>s1_pos</GIVEN>
	<TABLE>0.0 1.0 1.0 0.0 1.0 0.0 0.0 1.0 0.4 0.6 0.4 0.6 0.2 0.8 0.2 0.8 0.0 1.0 0.0 1.0 0.0 1.0 0.0 1.0 0.0 1.0 0.0 1.0 0.0 1.0 0.0 1.0 0.0 1.0 0.0 1.0 0.0 1.0 0.0 1.0</TABLE>
</DEFINITION>

<DEFINITION>
	<FOR>w0</FOR>
	<GIVEN>w1</GIVEN>
	<GIVEN>w2</GIVEN>
	<GIVEN>s2_st</GIVEN>
	<GIVEN>s2_pos</GIVEN>
	<TABLE>1.0 0.0 1.0 0.0 1.0 0.0 1.0 0.0 0.8 0.2 0.8 0.2 0.4 0.6 0.4 0.6 0.0 1.0 0.0 1.0 1.0 0.0 0.0 1.0 0.0 1.0 1.0 0.0 0.4 0.6 0.4 0.6 0.2 0.8 0.2 0.8 0.0 1.0 0.0 1.0 0.0 1.0 1.0 0.0 1.0 0.0 0.0 1.0 0.4 0.6 0.4 0.6 0.2 0.8 0.2 0.8 0.0 1.0 0.0 1.0 0.0 1.0 0.0 1.0 0.0 1.0 0.0 1.0 0.0 1.0 0.0 1.0 0.0 1.0 0.0 1.0 0.0 1.0 0.0 1.0</TABLE>
</DEFINITION>

<DEFINITION>
	<FOR>s2_st</FOR>
	<TABLE>0.9 0.01 0.04 0.03 0.02</TABLE>
</DEFINITION>

<DEFINITION>
	<FOR>s2_pos</FOR>
	<TABLE>0.5 0.5</TABLE>
</DEFINITION>

<DEFINITION>
	<FOR>l1_lit</FOR>
	<GIVEN>w0</GIVEN>
	<GIVEN>l1_st</GIVEN>
	<TABLE>1.0 0.0 0.7 0.3 0.0 1.0 0.0 1.0 0.0 1.0 0.0 1.0</TABLE>
</DEFINITION>

<DEFINITION>
	<FOR>w4</FOR>
	<GIVEN>w3</GIVEN>
	<GIVEN>s3_pos</GIVEN>
	<GIVEN>s3_st</GIVEN>
	<TABLE>1.0 0.0 0.0 1.0 0.4 0.6 0.2 0.8 0.0 1.0 0.0 1.0 1.0 0.0 0.4 0.6 0.2 0.8 0.0 1.0 0.0 1.0 0.0 1.0 0.0 1.0 0.0 1.0 0.0 1.0 0.0 1.0 0.0 1.0 0.0 1.0 0.0 1.0 0.0 1.0</TABLE>
</DEFINITION>

<DEFINITION>
	<FOR>s3_pos</FOR>
	<TABLE>0.8 0.2</TABLE>
</DEFINITION>

<DEFINITION>
	<FOR>s3_st</FOR>
	<TABLE>0.9 0.01 0.04 0.03 0.02</TABLE>
</DEFINITION>

<DEFINITION>
	<FOR>l2_lit</FOR>
	<GIVEN>w4</GIVEN>
	<GIVEN>l2_st</GIVEN>
	<TABLE>1.0 0.0 0.6 0.4 0.0 1.0 0.0 1.0 0.0 1.0 0.0 1.0</TABLE>
</DEFINITION>

<DEFINITION>
	<FOR>l2_st</FOR>
	<TABLE>0.9 0.03 0.07</TABLE>
</DEFINITION>

<DEFINITION>
	<FOR>l1_st</FOR>
	<TABLE>0.9 0.07 0.03</TABLE>
</DEFINITION>
</NETWORK>
</BIF>
